<?xml version="1.0"?>
<opencv_storage>
<myhaar type_id="opencv-haar-classifier">
  <size>
    24 24</size>
  <stages>
    <_>
      <trees>
        <_>
          <_>
            <feature>
              <rects>
                <_>
                  2 20 19 4 -1.</_>
                <_>
                  2 21 19 2 2.</_></rects>
              <tilted>0</tilted></feature>
            <threshold>3.6096028634347022e-004</threshold>
            <left_val>-0.8432834744453430</left_val>
            <right_val>0.4264157116413117</right_val></_></_>
        <_>
          <_>
            <feature>
              <rects>
                <_>
                  3 0 21 2 -1.</_>
                <_>
                  10 0 7 2 3.</_></rects>
              <tilted>0</tilted></feature>
            <threshold>-0.0222384408116341</threshold>
            <left_val>0.5699619054794312</left_val>
            <right_val>-0.3664582967758179</right_val></_></_></trees>
      <stage_threshold>-0.2733215987682343</stage_threshold>
      <parent>-1</parent>
      <next>-1</next></_>
    <_>
      <trees>
        <_>
          <_>
            <feature>
              <rects>
                <_>
                  0 0 4 17 -1.</_>
                <_>
                  1 0 2 17 2.</_></rects>
              <tilted>0</tilted></feature>
            <threshold>2.2759090643376112e-003</threshold>
            <left_val>-0.7467973232269287</left_val>
            <right_val>0.5313681960105896</right_val></_></_>
        <_>
          <_>
            <feature>
              <rects>
                <_>
                  2 15 20 8 -1.</_>
                <_>
                  2 17 20 4 2.</_></rects>
              <tilted>0</tilted></feature>
            <threshold>0.0165886096656322</threshold>
            <left_val>-0.5894659161567688</left_val>
            <right_val>0.7207370996475220</right_val></_></_></trees>
      <stage_threshold>-0.0580977201461792</stage_threshold>
      <parent>0</parent>
      <next>-1</next></_>
    <_>
      <trees>
        <_>
          <_>
            <feature>
              <rects>
                <_>
                  10 6 2 7 -1.</_>
                <_>
                  10 6 1 7 2.</_></rects>
              <tilted>1</tilted></feature>
            <threshold>4.8129628412425518e-003</threshold>
            <left_val>-0.5966389179229736</left_val>
            <right_val>0.6513776183128357</right_val></_></_>
        <_>
          <_>
            <feature>
              <rects>
                <_>
                  15 9 1 8 -1.</_>
                <_>
                  15 11 1 4 2.</_></rects>
              <tilted>0</tilted></feature>
            <threshold>8.0978381447494030e-004</threshold>
            <left_val>0.2749693095684052</left_val>
            <right_val>-0.9999952912330627</right_val></_></_>
        <_>
          <_>
            <feature>
              <rects>
                <_>
                  8 9 1 8 -1.</_>
                <_>
                  8 11 1 4 2.</_></rects>
              <tilted>0</tilted></feature>
            <threshold>1.9867169612552971e-004</threshold>
            <left_val>0.3455283939838409</left_val>
            <right_val>-1.0000009536743164</right_val></_></_></trees>
      <stage_threshold>0.0238588191568851</stage_threshold>
      <parent>1</parent>
      <next>-1</next></_>
    <_>
      <trees>
        <_>
          <_>
            <feature>
              <rects>
                <_>
                  3 20 1 4 -1.</_>
                <_>
                  3 22 1 2 2.</_></rects>
              <tilted>0</tilted></feature>
            <threshold>-4.5317949843592942e-004</threshold>
            <left_val>0.5591645836830139</left_val>
            <right_val>-0.6566761136054993</right_val></_></_>
        <_>
          <_>
            <feature>
              <rects>
                <_>
                  13 7 1 3 -1.</_>
                <_>
                  12 8 1 1 3.</_></rects>
              <tilted>1</tilted></feature>
            <threshold>-1.7173480591736734e-004</threshold>
            <left_val>-0.7272558808326721</left_val>
            <right_val>0.2553504109382629</right_val></_></_>
        <_>
          <_>
            <feature>
              <rects>
                <_>
                  11 2 2 14 -1.</_>
                <_>
                  11 9 2 7 2.</_></rects>
              <tilted>0</tilted></feature>
            <threshold>-2.7784430421888828e-003</threshold>
            <left_val>0.7540814876556397</left_val>
            <right_val>-0.6517087817192078</right_val></_></_></trees>
      <stage_threshold>0.1628061980009079</stage_threshold>
      <parent>2</parent>
      <next>-1</next></_>
    <_>
      <trees>
        <_>
          <_>
            <feature>
              <rects>
                <_>
                  0 0 8 7 -1.</_>
                <_>
                  2 0 4 7 2.</_></rects>
              <tilted>0</tilted></feature>
            <threshold>9.7627323120832443e-003</threshold>
            <left_val>-0.6011871099472046</left_val>
            <right_val>0.6721976995468140</right_val></_></_>
        <_>
          <_>
            <feature>
              <rects>
                <_>
                  11 12 3 8 -1.</_>
                <_>
                  12 12 1 8 3.</_></rects>
              <tilted>0</tilted></feature>
            <threshold>-6.8348520435392857e-003</threshold>
            <left_val>-1.</left_val>
            <right_val>0.0814769417047501</right_val></_></_>
        <_>
          <_>
            <feature>
              <rects>
                <_>
                  10 12 3 8 -1.</_>
                <_>
                  11 12 1 8 3.</_></rects>
              <tilted>0</tilted></feature>
            <threshold>1.3084299862384796e-003</threshold>
            <left_val>-0.6424977779388428</left_val>
            <right_val>0.8628458976745606</right_val></_></_></trees>
      <stage_threshold>0.1111768037080765</stage_threshold>
      <parent>3</parent>
      <next>-1</next></_>
    <_>
      <trees>
        <_>
          <_>
            <feature>
              <rects>
                <_>
                  10 4 6 7 -1.</_>
                <_>
                  12 6 2 7 3.</_></rects>
              <tilted>1</tilted></feature>
            <threshold>-9.7752039437182248e-005</threshold>
            <left_val>0.4012973904609680</left_val>
            <right_val>-0.8375248908996582</right_val></_></_>
        <_>
          <_>
            <feature>
              <rects>
                <_>
                  21 23 3 1 -1.</_>
                <_>
                  22 23 1 1 3.</_></rects>
              <tilted>0</tilted></feature>
            <threshold>1.3137240603100508e-004</threshold>
            <left_val>-0.4112187922000885</left_val>
            <right_val>0.3051862120628357</right_val></_></_>
        <_>
          <_>
            <feature>
              <rects>
                <_>
                  0 23 3 1 -1.</_>
                <_>
                  1 23 1 1 3.</_></rects>
              <tilted>0</tilted></feature>
            <threshold>1.6678879546816461e-005</threshold>
            <left_val>-0.8251529932022095</left_val>
            <right_val>0.5234619975090027</right_val></_></_></trees>
      <stage_threshold>-0.1186693981289864</stage_threshold>
      <parent>4</parent>
      <next>-1</next></_>
    <_>
      <trees>
        <_>
          <_>
            <feature>
              <rects>
                <_>
                  5 2 1 4 -1.</_>
                <_>
                  5 2 1 2 2.</_></rects>
              <tilted>1</tilted></feature>
            <threshold>7.2446692502126098e-004</threshold>
            <left_val>0.4794520139694214</left_val>
            <right_val>-0.8536596894264221</right_val></_></_>
        <_>
          <_>
            <feature>
              <rects>
                <_>
                  23 4 1 6 -1.</_>
                <_>
                  23 6 1 2 3.</_></rects>
              <tilted>0</tilted></feature>
            <threshold>2.0540319383144379e-003</threshold>
            <left_val>0.0777781233191490</left_val>
            <right_val>-0.9999985098838806</right_val></_></_>
        <_>
          <_>
            <feature>
              <rects>
                <_>
                  0 4 1 6 -1.</_>
                <_>
                  0 6 1 2 3.</_></rects>
              <tilted>0</tilted></feature>
            <threshold>5.4115388775244355e-004</threshold>
            <left_val>0.4475845098495483</left_val>
            <right_val>-0.9999995231628418</right_val></_></_></trees>
      <stage_threshold>-0.3282971978187561</stage_threshold>
      <parent>5</parent>
      <next>-1</next></_>
    <_>
      <trees>
        <_>
          <_>
            <feature>
              <rects>
                <_>
                  3 17 5 4 -1.</_>
                <_>
                  3 18 5 2 2.</_></rects>
              <tilted>0</tilted></feature>
            <threshold>4.1531090391799808e-004</threshold>
            <left_val>0.5218921899795532</left_val>
            <right_val>-0.8605821728706360</right_val></_></_>
        <_>
          <_>
            <feature>
              <rects>
                <_>
                  3 8 18 2 -1.</_>
                <_>
                  12 8 9 1 2.</_>
                <_>
                  3 9 9 1 2.</_></rects>
              <tilted>0</tilted></feature>
            <threshold>1.5196780441328883e-003</threshold>
            <left_val>-0.6209818124771118</left_val>
            <right_val>0.6045138239860535</right_val></_></_>
        <_>
          <_>
            <feature>
              <rects>
                <_>
                  2 3 2 4 -1.</_>
                <_>
                  2 3 1 2 2.</_>
                <_>
                  3 5 1 2 2.</_></rects>
              <tilted>0</tilted></feature>
            <threshold>3.3755801268853247e-004</threshold>
            <left_val>0.4018895924091339</left_val>
            <right_val>-1.0000020265579224</right_val></_></_></trees>
      <stage_threshold>0.1458211988210678</stage_threshold>
      <parent>6</parent>
      <next>-1</next></_>
    <_>
      <trees>
        <_>
          <_>
            <feature>
              <rects>
                <_>
                  2 4 2 2 -1.</_>
                <_>
                  2 4 1 1 2.</_>
                <_>
                  3 5 1 1 2.</_></rects>
              <tilted>0</tilted></feature>
            <threshold>-1.6070950368884951e-004</threshold>
            <left_val>-1.</left_val>
            <right_val>0.4358980953693390</right_val></_></_></trees>
      <stage_threshold>0.4358980953693390</stage_threshold>
      <parent>7</parent>
      <next>-1</next></_>
    <_>
      <trees>
        <_>
          <_>
            <feature>
              <rects>
                <_>
                  10 19 2 2 -1.</_>
                <_>
                  10 20 2 1 2.</_></rects>
              <tilted>0</tilted></feature>
            <threshold>2.0584209778462537e-005</threshold>
            <left_val>-0.5872238278388977</left_val>
            <right_val>0.6112545728683472</right_val></_></_>
        <_>
          <_>
            <feature>
              <rects>
                <_>
                  19 0 3 1 -1.</_>
                <_>
                  20 0 1 1 3.</_></rects>
              <tilted>0</tilted></feature>
            <threshold>4.5137849519960582e-004</threshold>
            <left_val>-0.1615276932716370</left_val>
            <right_val>0.4917910099029541</right_val></_></_>
        <_>
          <_>
            <feature>
              <rects>
                <_>
                  11 0 1 12 -1.</_>
                <_>
                  11 4 1 4 3.</_></rects>
              <tilted>0</tilted></feature>
            <threshold>-6.7545878700911999e-003</threshold>
            <left_val>0.8897501826286316</left_val>
            <right_val>-0.4168629050254822</right_val></_></_></trees>
      <stage_threshold>-0.5122957229614258</stage_threshold>
      <parent>8</parent>
      <next>-1</next></_>
    <_>
      <trees>
        <_>
          <_>
            <feature>
              <rects>
                <_>
                  0 18 4 2 -1.</_>
                <_>
                  0 18 2 1 2.</_>
                <_>
                  2 19 2 1 2.</_></rects>
              <tilted>0</tilted></feature>
            <threshold>3.9034610381349921e-005</threshold>
            <left_val>-0.7467975020408630</left_val>
            <right_val>0.5313683748245239</right_val></_></_>
        <_>
          <_>
            <feature>
              <rects>
                <_>
                  16 1 2 6 -1.</_>
                <_>
                  16 4 2 3 2.</_></rects>
              <tilted>0</tilted></feature>
            <threshold>8.9006201596930623e-004</threshold>
            <left_val>-0.1535187959671021</left_val>
            <right_val>0.2071612030267716</right_val></_></_>
        <_>
          <_>
            <feature>
              <rects>
                <_>
                  0 12 13 4 -1.</_>
                <_>
                  0 14 13 2 2.</_></rects>
              <tilted>0</tilted></feature>
            <threshold>-3.0251280404627323e-003</threshold>
            <left_val>0.6322762966156006</left_val>
            <right_val>-0.5979992151260376</right_val></_></_></trees>
      <stage_threshold>-0.2680400013923645</stage_threshold>
      <parent>9</parent>
      <next>-1</next></_>
    <_>
      <trees>
        <_>
          <_>
            <feature>
              <rects>
                <_>
                  0 0 6 2 -1.</_>
                <_>
                  0 0 3 1 2.</_>
                <_>
                  3 1 3 1 2.</_></rects>
              <tilted>0</tilted></feature>
            <threshold>5.0152500625699759e-004</threshold>
            <left_val>-0.5919855237007141</left_val>
            <right_val>0.6310694813728333</right_val></_></_>
        <_>
          <_>
            <feature>
              <rects>
                <_>
                  12 3 3 11 -1.</_>
                <_>
                  13 3 1 11 3.</_></rects>
              <tilted>0</tilted></feature>
            <threshold>0.0173220597207546</threshold>
            <left_val>0.0555012896656990</left_val>
            <right_val>-0.9999995827674866</right_val></_></_>
        <_>
          <_>
            <feature>
              <rects>
                <_>
                  12 1 6 2 -1.</_>
                <_>
                  14 3 2 2 3.</_></rects>
              <tilted>1</tilted></feature>
            <threshold>7.1130939759314060e-003</threshold>
            <left_val>-0.5366665124893189</left_val>
            <right_val>0.7466279268264771</right_val></_></_></trees>
      <stage_threshold>0.1499044001102448</stage_threshold>
      <parent>10</parent>
      <next>-1</next></_>
    <_>
      <trees>
        <_>
          <_>
            <feature>
              <rects>
                <_>
                  0 4 1 6 -1.</_>
                <_>
                  0 6 1 2 3.</_></rects>
              <tilted>0</tilted></feature>
            <threshold>-6.9260509917512536e-004</threshold>
            <left_val>-0.8375241756439209</left_val>
            <right_val>0.4012981951236725</right_val></_></_>
        <_>
          <_>
            <feature>
              <rects>
                <_>
                  8 3 14 2 -1.</_>
                <_>
                  15 3 7 1 2.</_>
                <_>
                  8 4 7 1 2.</_></rects>
              <tilted>0</tilted></feature>
            <threshold>-0.0180919393897057</threshold>
            <left_val>0.7448570132255554</left_val>
            <right_val>-0.1083479970693588</right_val></_></_>
        <_>
          <_>
            <feature>
              <rects>
                <_>
                  9 18 1 3 -1.</_>
                <_>
                  9 19 1 1 3.</_></rects>
              <tilted>0</tilted></feature>
            <threshold>-3.2928481232374907e-004</threshold>
            <left_val>-1.</left_val>
            <right_val>0.3269180953502655</right_val></_></_></trees>
      <stage_threshold>-0.6189541220664978</stage_threshold>
      <parent>11</parent>
      <next>-1</next></_>
    <_>
      <trees>
        <_>
          <_>
            <feature>
              <rects>
                <_>
                  8 17 1 6 -1.</_>
                <_>
                  8 19 1 2 3.</_></rects>
              <tilted>0</tilted></feature>
            <threshold>4.5185169437900186e-004</threshold>
            <left_val>0.3228346109390259</left_val>
            <right_val>-1.0000020265579224</right_val></_></_>
        <_>
          <_>
            <feature>
              <rects>
                <_>
                  14 5 3 8 -1.</_>
                <_>
                  15 6 1 8 3.</_></rects>
              <tilted>1</tilted></feature>
            <threshold>9.2647148994728923e-004</threshold>
            <left_val>-0.3377433121204376</left_val>
            <right_val>0.2153228968381882</right_val></_></_>
        <_>
          <_>
            <feature>
              <rects>
                <_>
                  2 17 2 3 -1.</_>
                <_>
                  2 18 2 1 3.</_></rects>
              <tilted>0</tilted></feature>
            <threshold>1.2833300570491701e-004</threshold>
            <left_val>0.3221197128295898</left_val>
            <right_val>-0.9999986290931702</right_val></_></_></trees>
      <stage_threshold>0.3072110116481781</stage_threshold>
      <parent>12</parent>
      <next>-1</next></_>
    <_>
      <trees>
        <_>
          <_>
            <feature>
              <rects>
                <_>
                  6 21 4 2 -1.</_>
                <_>
                  6 22 4 1 2.</_></rects>
              <tilted>0</tilted></feature>
            <threshold>-1.7813809972722083e-004</threshold>
            <left_val>0.5092642903327942</left_val>
            <right_val>-0.6428068876266480</right_val></_></_>
        <_>
          <_>
            <feature>
              <rects>
                <_>
                  12 21 9 3 -1.</_>
                <_>
                  15 22 3 1 9.</_></rects>
              <tilted>0</tilted></feature>
            <threshold>6.6056400537490845e-003</threshold>
            <left_val>-0.4386110901832581</left_val>
            <right_val>0.3681761026382446</right_val></_></_>
        <_>
          <_>
            <feature>
              <rects>
                <_>
                  4 0 8 2 -1.</_>
                <_>
                  6 2 4 2 2.</_></rects>
              <tilted>1</tilted></feature>
            <threshold>-8.8626501383259892e-004</threshold>
            <left_val>0.5584089756011963</left_val>
            <right_val>-0.6803628206253052</right_val></_></_></trees>
      <stage_threshold>0.1970776021480560</stage_threshold>
      <parent>13</parent>
      <next>-1</next></_></stages></myhaar>
</opencv_storage>
